svm_type c_svc
kernel_type rbf
gamma 0.005
nr_class 2
total_sv 12
rho -0
label 1 -1
nr_sv 6 6
SV
1 1:0.077036 2:-0.20861 3:-0.09922 4:0.37398 5:0.4612 
1 1:0.077036 2:-0.20861 3:-0.09922 4:0.37398 5:0.4612 
1 1:0.077036 2:-0.20861 3:-0.09922 4:0.37398 5:0.4612 
1 1:0.077036 2:-0.20861 3:-0.09922 4:0.37398 5:0.4612 
1 1:0.077036 2:-0.20861 3:-0.09922 4:0.37398 5:0.4612 
1 1:0.077036 2:-0.20861 3:-0.09922 4:0.37398 5:0.4612 
-1 1:0.022851 2:0.18662 3:-0.11716 4:-0.46956 5:-0.46025 
-1 1:0.022851 2:0.18662 3:-0.11716 4:-0.46956 5:-0.46025 
-1 1:0.022851 2:0.18662 3:-0.11716 4:-0.46956 5:-0.46025 
-1 1:0.022851 2:0.18662 3:-0.11716 4:-0.46956 5:-0.46025 
-1 1:0.022851 2:0.18662 3:-0.11716 4:-0.46956 5:-0.46025 
-1 1:0.022851 2:0.18662 3:-0.11716 4:-0.46956 5:-0.46025 
